digraph Tree {
0 [label="X[0] <= 0.5000\ngini = 0.471937363574\nsamples = 802", shape="box"] ;
1 [label="X[1] <= 2.5000\ngini = 0.38956660715\nsamples = 283", shape="box"] ;
0 -> 1 ;
2 [label="X[2] <= 2.5000\ngini = 0.0997229916898\nsamples = 152", shape="box"] ;
1 -> 2 ;
3 [label="X[1] <= 1.5000\ngini = 0.177371674281\nsamples = 61", shape="box"] ;
2 -> 3 ;
4 [label="gini = 0.3200\nsamples = 5\nvalue = [ 1.  4.]", shape="box"] ;
3 -> 4 ;
5 [label="X[2] <= 1.5000\ngini = 0.16262755102\nsamples = 56", shape="box"] ;
3 -> 5 ;
6 [label="gini = 0.1855\nsamples = 29\nvalue = [  3.  26.]", shape="box"] ;
5 -> 6 ;
7 [label="gini = 0.1372\nsamples = 27\nvalue = [  2.  25.]", shape="box"] ;
5 -> 7 ;
8 [label="X[2] <= 14.5000\ngini = 0.0429899770559\nsamples = 91", shape="box"] ;
2 -> 8 ;
9 [label="gini = 0.0000\nsamples = 73\nvalue = [  0.  73.]", shape="box"] ;
8 -> 9 ;
10 [label="X[2] <= 15.5000\ngini = 0.197530864198\nsamples = 18", shape="box"] ;
8 -> 10 ;
11 [label="gini = 0.4800\nsamples = 5\nvalue = [ 2.  3.]", shape="box"] ;
10 -> 11 ;
12 [label="gini = 0.0000\nsamples = 13\nvalue = [  0.  13.]", shape="box"] ;
10 -> 12 ;
13 [label="X[2] <= 1.5000\ngini = 0.499737777519\nsamples = 131", shape="box"] ;
1 -> 13 ;
14 [label="X[2] <= 0.5000\ngini = 0.485513807153\nsamples = 94", shape="box"] ;
13 -> 14 ;
15 [label="gini = 0.4898\nsamples = 56\nvalue = [ 24.  32.]", shape="box"] ;
14 -> 15 ;
16 [label="gini = 0.4778\nsamples = 38\nvalue = [ 15.  23.]", shape="box"] ;
14 -> 16 ;
17 [label="X[2] <= 2.5000\ngini = 0.36815193572\nsamples = 37", shape="box"] ;
13 -> 17 ;
18 [label="gini = 0.4444\nsamples = 21\nvalue = [ 14.   7.]", shape="box"] ;
17 -> 18 ;
19 [label="X[2] <= 3.5000\ngini = 0.21875\nsamples = 16", shape="box"] ;
17 -> 19 ;
20 [label="gini = 0.2975\nsamples = 11\nvalue = [ 9.  2.]", shape="box"] ;
19 -> 20 ;
21 [label="gini = 0.0000\nsamples = 5\nvalue = [ 5.  0.]", shape="box"] ;
19 -> 21 ;
22 [label="X[1] <= 1.5000\ngini = 0.306339819053\nsamples = 519", shape="box"] ;
0 -> 22 ;
23 [label="X[2] <= 38.5000\ngini = 0.465112139551\nsamples = 106", shape="box"] ;
22 -> 23 ;
24 [label="X[2] <= 18.0000\ngini = 0.458394970414\nsamples = 104", shape="box"] ;
23 -> 24 ;
25 [label="X[2] <= 1.0000\ngini = 0.470012494794\nsamples = 98", shape="box"] ;
24 -> 25 ;
26 [label="gini = 0.0000\nsamples = 5\nvalue = [ 5.  0.]", shape="box"] ;
25 -> 26 ;
27 [label="X[2] <= 11.5000\ngini = 0.479130535322\nsamples = 93", shape="box"] ;
25 -> 27 ;
28 [label="X[2] <= 9.5000\ngini = 0.474173553719\nsamples = 88", shape="box"] ;
27 -> 28 ;
29 [label="X[2] <= 3.5000\ngini = 0.479024531862\nsamples = 83", shape="box"] ;
28 -> 29 ;
30 [label="X[2] <= 2.5000\ngini = 0.488909008601\nsamples = 47", shape="box"] ;
29 -> 30 ;
31 [label="gini = 0.4608\nsamples = 25\nvalue = [ 16.   9.]", shape="box"] ;
30 -> 31 ;
32 [label="gini = 0.5000\nsamples = 22\nvalue = [ 11.  11.]", shape="box"] ;
30 -> 32 ;
33 [label="X[2] <= 4.5000\ngini = 0.461419753086\nsamples = 36", shape="box"] ;
29 -> 33 ;
34 [label="gini = 0.0000\nsamples = 4\nvalue = [ 4.  0.]", shape="box"] ;
33 -> 34 ;
35 [label="X[2] <= 5.5000\ngini = 0.482421875\nsamples = 32", shape="box"] ;
33 -> 35 ;
36 [label="gini = 0.4970\nsamples = 13\nvalue = [ 7.  6.]", shape="box"] ;
35 -> 36 ;
37 [label="X[2] <= 6.5000\ngini = 0.465373961219\nsamples = 19", shape="box"] ;
35 -> 37 ;
38 [label="gini = 0.3200\nsamples = 5\nvalue = [ 4.  1.]", shape="box"] ;
37 -> 38 ;
39 [label="X[2] <= 7.5000\ngini = 0.489795918367\nsamples = 14", shape="box"] ;
37 -> 39 ;
40 [label="gini = 0.4688\nsamples = 8\nvalue = [ 5.  3.]", shape="box"] ;
39 -> 40 ;
41 [label="X[2] <= 8.5000\ngini = 0.5\nsamples = 6", shape="box"] ;
39 -> 41 ;
42 [label="gini = 0.5000\nsamples = 4\nvalue = [ 2.  2.]", shape="box"] ;
41 -> 42 ;
43 [label="gini = 0.5000\nsamples = 2\nvalue = [ 1.  1.]", shape="box"] ;
41 -> 43 ;
44 [label="X[2] <= 10.5000\ngini = 0.32\nsamples = 5", shape="box"] ;
28 -> 44 ;
45 [label="gini = 0.0000\nsamples = 2\nvalue = [ 2.  0.]", shape="box"] ;
44 -> 45 ;
46 [label="gini = 0.4444\nsamples = 3\nvalue = [ 2.  1.]", shape="box"] ;
44 -> 46 ;
47 [label="X[2] <= 12.5000\ngini = 0.48\nsamples = 5", shape="box"] ;
27 -> 47 ;
48 [label="gini = 0.0000\nsamples = 1\nvalue = [ 0.  1.]", shape="box"] ;
47 -> 48 ;
49 [label="X[2] <= 14.0000\ngini = 0.5\nsamples = 4", shape="box"] ;
47 -> 49 ;
50 [label="gini = 0.5000\nsamples = 2\nvalue = [ 1.  1.]", shape="box"] ;
49 -> 50 ;
51 [label="gini = 0.5000\nsamples = 2\nvalue = [ 1.  1.]", shape="box"] ;
49 -> 51 ;
52 [label="gini = 0.0000\nsamples = 6\nvalue = [ 6.  0.]", shape="box"] ;
24 -> 52 ;
53 [label="gini = 0.0000\nsamples = 2\nvalue = [ 0.  2.]", shape="box"] ;
23 -> 53 ;
54 [label="X[2] <= 4.5000\ngini = 0.244897959184\nsamples = 413", shape="box"] ;
22 -> 54 ;
55 [label="X[2] <= 0.5000\ngini = 0.23355\nsamples = 400", shape="box"] ;
54 -> 55 ;
56 [label="X[1] <= 2.5000\ngini = 0.196822090836\nsamples = 244", shape="box"] ;
55 -> 56 ;
57 [label="gini = 0.0000\nsamples = 6\nvalue = [ 6.  0.]", shape="box"] ;
56 -> 57 ;
58 [label="gini = 0.2012\nsamples = 238\nvalue = [ 211.   27.]", shape="box"] ;
56 -> 58 ;
59 [label="X[2] <= 3.5000\ngini = 0.28624260355\nsamples = 156", shape="box"] ;
55 -> 59 ;
60 [label="X[2] <= 1.5000\ngini = 0.293671330205\nsamples = 151", shape="box"] ;
59 -> 60 ;
61 [label="X[1] <= 2.5000\ngini = 0.317352976694\nsamples = 91", shape="box"] ;
60 -> 61 ;
62 [label="gini = 0.2854\nsamples = 58\nvalue = [ 48.  10.]", shape="box"] ;
61 -> 62 ;
63 [label="gini = 0.3673\nsamples = 33\nvalue = [ 25.   8.]", shape="box"] ;
61 -> 63 ;
64 [label="X[1] <= 2.5000\ngini = 0.255\nsamples = 60", shape="box"] ;
60 -> 64 ;
65 [label="X[2] <= 2.5000\ngini = 0.328180737218\nsamples = 29", shape="box"] ;
64 -> 65 ;
66 [label="gini = 0.2449\nsamples = 21\nvalue = [ 18.   3.]", shape="box"] ;
65 -> 66 ;
67 [label="gini = 0.4688\nsamples = 8\nvalue = [ 5.  3.]", shape="box"] ;
65 -> 67 ;
68 [label="X[2] <= 2.5000\ngini = 0.174817898023\nsamples = 31", shape="box"] ;
64 -> 68 ;
69 [label="gini = 0.2268\nsamples = 23\nvalue = [ 20.   3.]", shape="box"] ;
68 -> 69 ;
70 [label="gini = 0.0000\nsamples = 8\nvalue = [ 8.  0.]", shape="box"] ;
68 -> 70 ;
71 [label="gini = 0.0000\nsamples = 5\nvalue = [ 5.  0.]", shape="box"] ;
59 -> 71 ;
72 [label="X[2] <= 5.5000\ngini = 0.473372781065\nsamples = 13", shape="box"] ;
54 -> 72 ;
73 [label="gini = 0.4082\nsamples = 7\nvalue = [ 2.  5.]", shape="box"] ;
72 -> 73 ;
74 [label="gini = 0.0000\nsamples = 6\nvalue = [ 6.  0.]", shape="box"] ;
72 -> 74 ;
}